digraph Tree {
node [shape=box, fontname="helvetica"] ;
edge [fontname="helvetica"] ;
0 [label="X[24] <= 4.5\ngini = 0.42\nsamples = 2131\nvalue = [1492, 639]"] ;
1 [label="X[24] <= 3.5\ngini = 0.102\nsamples = 1186\nvalue = [1122, 64]"] ;
0 -> 1 [labeldistance=2.5, labelangle=45, headlabel="True"] ;
2 [label="X[22] <= 0.5\ngini = 0.052\nsamples = 971\nvalue = [945, 26]"] ;
1 -> 2 ;
3 [label="X[6] <= 141.5\ngini = 0.294\nsamples = 95\nvalue = [78, 17]"] ;
2 -> 3 ;
4 [label="X[12] <= 149.5\ngini = 0.198\nsamples = 72\nvalue = [64, 8]"] ;
3 -> 4 ;
5 [label="X[2] <= 2.5\ngini = 0.178\nsamples = 71\nvalue = [64, 7]"] ;
4 -> 5 ;
6 [label="X[30] <= 8.25\ngini = 0.073\nsamples = 53\nvalue = [51, 2]"] ;
5 -> 6 ;
7 [label="X[8] <= 31.5\ngini = 0.375\nsamples = 4\nvalue = [3, 1]"] ;
6 -> 7 ;
8 [label="gini = 0.0\nsamples = 1\nvalue = [0, 1]"] ;
7 -> 8 ;
9 [label="gini = 0.0\nsamples = 3\nvalue = [3, 0]"] ;
7 -> 9 ;
10 [label="X[18] <= 0.5\ngini = 0.04\nsamples = 49\nvalue = [48, 1]"] ;
6 -> 10 ;
11 [label="gini = 0.0\nsamples = 42\nvalue = [42, 0]"] ;
10 -> 11 ;
12 [label="gini = 0.245\nsamples = 7\nvalue = [6, 1]"] ;
10 -> 12 ;
13 [label="X[32] <= -2.41\ngini = 0.401\nsamples = 18\nvalue = [13, 5]"] ;
5 -> 13 ;
14 [label="gini = 0.0\nsamples = 9\nvalue = [9, 0]"] ;
13 -> 14 ;
15 [label="X[30] <= 10.95\ngini = 0.494\nsamples = 9\nvalue = [4, 5]"] ;
13 -> 15 ;
16 [label="gini = 0.32\nsamples = 5\nvalue = [4, 1]"] ;
15 -> 16 ;
17 [label="gini = 0.0\nsamples = 4\nvalue = [0, 4]"] ;
15 -> 17 ;
18 [label="gini = 0.0\nsamples = 1\nvalue = [0, 1]"] ;
4 -> 18 ;
19 [label="X[32] <= 0.555\ngini = 0.476\nsamples = 23\nvalue = [14, 9]"] ;
3 -> 19 ;
20 [label="X[9] <= 2.0\ngini = 0.26\nsamples = 13\nvalue = [11, 2]"] ;
19 -> 20 ;
21 [label="X[8] <= 10.0\ngini = 0.444\nsamples = 3\nvalue = [1, 2]"] ;
20 -> 21 ;
22 [label="gini = 0.0\nsamples = 1\nvalue = [1, 0]"] ;
21 -> 22 ;
23 [label="gini = 0.0\nsamples = 2\nvalue = [0, 2]"] ;
21 -> 23 ;
24 [label="gini = 0.0\nsamples = 10\nvalue = [10, 0]"] ;
20 -> 24 ;
25 [label="X[10] <= 3.5\ngini = 0.42\nsamples = 10\nvalue = [3, 7]"] ;
19 -> 25 ;
26 [label="gini = 0.0\nsamples = 4\nvalue = [0, 4]"] ;
25 -> 26 ;
27 [label="X[6] <= 144.0\ngini = 0.5\nsamples = 6\nvalue = [3, 3]"] ;
25 -> 27 ;
28 [label="gini = 0.0\nsamples = 2\nvalue = [0, 2]"] ;
27 -> 28 ;
29 [label="X[8] <= 38.5\ngini = 0.375\nsamples = 4\nvalue = [3, 1]"] ;
27 -> 29 ;
30 [label="gini = 0.0\nsamples = 3\nvalue = [3, 0]"] ;
29 -> 30 ;
31 [label="gini = 0.0\nsamples = 1\nvalue = [0, 1]"] ;
29 -> 31 ;
32 [label="X[28] <= 11.55\ngini = 0.02\nsamples = 876\nvalue = [867, 9]"] ;
2 -> 32 ;
33 [label="X[24] <= 2.5\ngini = 0.003\nsamples = 756\nvalue = [755, 1]"] ;
32 -> 33 ;
34 [label="gini = 0.0\nsamples = 653\nvalue = [653, 0]"] ;
33 -> 34 ;
35 [label="X[32] <= 1.905\ngini = 0.019\nsamples = 103\nvalue = [102, 1]"] ;
33 -> 35 ;
36 [label="gini = 0.0\nsamples = 96\nvalue = [96, 0]"] ;
35 -> 36 ;
37 [label="X[25] <= 11.0\ngini = 0.245\nsamples = 7\nvalue = [6, 1]"] ;
35 -> 37 ;
38 [label="gini = 0.0\nsamples = 1\nvalue = [0, 1]"] ;
37 -> 38 ;
39 [label="gini = 0.0\nsamples = 6\nvalue = [6, 0]"] ;
37 -> 39 ;
40 [label="X[22] <= 2.5\ngini = 0.124\nsamples = 120\nvalue = [112, 8]"] ;
32 -> 40 ;
41 [label="gini = 0.0\nsamples = 1\nvalue = [0, 1]"] ;
40 -> 41 ;
42 [label="X[28] <= 11.633\ngini = 0.111\nsamples = 119\nvalue = [112, 7]"] ;
40 -> 42 ;
43 [label="gini = 0.0\nsamples = 1\nvalue = [0, 1]"] ;
42 -> 43 ;
44 [label="X[11] <= 50.0\ngini = 0.097\nsamples = 118\nvalue = [112, 6]"] ;
42 -> 44 ;
45 [label="X[6] <= 119.5\ngini = 0.068\nsamples = 114\nvalue = [110, 4]"] ;
44 -> 45 ;
46 [label="gini = 0.278\nsamples = 18\nvalue = [15, 3]"] ;
45 -> 46 ;
47 [label="gini = 0.021\nsamples = 96\nvalue = [95, 1]"] ;
45 -> 47 ;
48 [label="X[19] <= 29.5\ngini = 0.5\nsamples = 4\nvalue = [2, 2]"] ;
44 -> 48 ;
49 [label="gini = 0.0\nsamples = 2\nvalue = [0, 2]"] ;
48 -> 49 ;
50 [label="gini = 0.0\nsamples = 2\nvalue = [2, 0]"] ;
48 -> 50 ;
51 [label="X[22] <= 5.5\ngini = 0.291\nsamples = 215\nvalue = [177, 38]"] ;
1 -> 51 ;
52 [label="X[30] <= 9.15\ngini = 0.471\nsamples = 66\nvalue = [41, 25]"] ;
51 -> 52 ;
53 [label="X[13] <= 0.5\ngini = 0.36\nsamples = 17\nvalue = [4, 13]"] ;
52 -> 53 ;
54 [label="gini = 0.0\nsamples = 10\nvalue = [0, 10]"] ;
53 -> 54 ;
55 [label="X[2] <= 3.5\ngini = 0.49\nsamples = 7\nvalue = [4, 3]"] ;
53 -> 55 ;
56 [label="gini = 0.0\nsamples = 4\nvalue = [4, 0]"] ;
55 -> 56 ;
57 [label="gini = 0.0\nsamples = 3\nvalue = [0, 3]"] ;
55 -> 57 ;
58 [label="X[9] <= 29.5\ngini = 0.37\nsamples = 49\nvalue = [37, 12]"] ;
52 -> 58 ;
59 [label="X[12] <= 115.35\ngini = 0.17\nsamples = 32\nvalue = [29, 3]"] ;
58 -> 59 ;
60 [label="X[31] <= -0.25\ngini = 0.5\nsamples = 4\nvalue = [2, 2]"] ;
59 -> 60 ;
61 [label="gini = 0.0\nsamples = 2\nvalue = [0, 2]"] ;
60 -> 61 ;
62 [label="gini = 0.0\nsamples = 2\nvalue = [2, 0]"] ;
60 -> 62 ;
63 [label="X[31] <= 3.25\ngini = 0.069\nsamples = 28\nvalue = [27, 1]"] ;
59 -> 63 ;
64 [label="gini = 0.0\nsamples = 26\nvalue = [26, 0]"] ;
63 -> 64 ;
65 [label="X[10] <= 6.5\ngini = 0.5\nsamples = 2\nvalue = [1, 1]"] ;
63 -> 65 ;
66 [label="gini = 0.0\nsamples = 1\nvalue = [1, 0]"] ;
65 -> 66 ;
67 [label="gini = 0.0\nsamples = 1\nvalue = [0, 1]"] ;
65 -> 67 ;
68 [label="X[27] <= 8.5\ngini = 0.498\nsamples = 17\nvalue = [8, 9]"] ;
58 -> 68 ;
69 [label="X[25] <= 13.875\ngini = 0.219\nsamples = 8\nvalue = [1, 7]"] ;
68 -> 69 ;
70 [label="gini = 0.0\nsamples = 7\nvalue = [0, 7]"] ;
69 -> 70 ;
71 [label="gini = 0.0\nsamples = 1\nvalue = [1, 0]"] ;
69 -> 71 ;
72 [label="X[10] <= 8.0\ngini = 0.346\nsamples = 9\nvalue = [7, 2]"] ;
68 -> 72 ;
73 [label="gini = 0.0\nsamples = 7\nvalue = [7, 0]"] ;
72 -> 73 ;
74 [label="gini = 0.0\nsamples = 2\nvalue = [0, 2]"] ;
72 -> 74 ;
75 [label="X[18] <= 0.5\ngini = 0.159\nsamples = 149\nvalue = [136, 13]"] ;
51 -> 75 ;
76 [label="X[28] <= 14.417\ngini = 0.103\nsamples = 128\nvalue = [121, 7]"] ;
75 -> 76 ;
77 [label="X[19] <= 20.5\ngini = 0.09\nsamples = 127\nvalue = [121, 6]"] ;
76 -> 77 ;
78 [label="X[25] <= 10.375\ngini = 0.18\nsamples = 60\nvalue = [54, 6]"] ;
77 -> 78 ;
79 [label="gini = 0.0\nsamples = 1\nvalue = [0, 1]"] ;
78 -> 79 ;
80 [label="X[4] <= 0.5\ngini = 0.155\nsamples = 59\nvalue = [54, 5]"] ;
78 -> 80 ;
81 [label="gini = 0.0\nsamples = 1\nvalue = [0, 1]"] ;
80 -> 81 ;
82 [label="gini = 0.128\nsamples = 58\nvalue = [54, 4]"] ;
80 -> 82 ;
83 [label="gini = 0.0\nsamples = 67\nvalue = [67, 0]"] ;
77 -> 83 ;
84 [label="gini = 0.0\nsamples = 1\nvalue = [0, 1]"] ;
76 -> 84 ;
85 [label="X[28] <= 11.417\ngini = 0.408\nsamples = 21\nvalue = [15, 6]"] ;
75 -> 85 ;
86 [label="X[3] <= 8542.0\ngini = 0.133\nsamples = 14\nvalue = [13, 1]"] ;
85 -> 86 ;
87 [label="gini = 0.0\nsamples = 1\nvalue = [0, 1]"] ;
86 -> 87 ;
88 [label="gini = 0.0\nsamples = 13\nvalue = [13, 0]"] ;
86 -> 88 ;
89 [label="X[27] <= 10.0\ngini = 0.408\nsamples = 7\nvalue = [2, 5]"] ;
85 -> 89 ;
90 [label="gini = 0.0\nsamples = 4\nvalue = [0, 4]"] ;
89 -> 90 ;
91 [label="X[30] <= 12.45\ngini = 0.444\nsamples = 3\nvalue = [2, 1]"] ;
89 -> 91 ;
92 [label="gini = 0.0\nsamples = 2\nvalue = [2, 0]"] ;
91 -> 92 ;
93 [label="gini = 0.0\nsamples = 1\nvalue = [0, 1]"] ;
91 -> 93 ;
94 [label="X[16] <= 0.5\ngini = 0.476\nsamples = 945\nvalue = [370, 575]"] ;
0 -> 94 [labeldistance=2.5, labelangle=-45, headlabel="False"] ;
95 [label="X[25] <= 10.307\ngini = 0.124\nsamples = 105\nvalue = [98, 7]"] ;
94 -> 95 ;
96 [label="gini = 0.0\nsamples = 1\nvalue = [0, 1]"] ;
95 -> 96 ;
97 [label="X[7] <= 20.5\ngini = 0.109\nsamples = 104\nvalue = [98, 6]"] ;
95 -> 97 ;
98 [label="X[6] <= 145.0\ngini = 0.061\nsamples = 96\nvalue = [93, 3]"] ;
97 -> 98 ;
99 [label="gini = 0.0\nsamples = 85\nvalue = [85, 0]"] ;
98 -> 99 ;
100 [label="X[31] <= 0.4\ngini = 0.397\nsamples = 11\nvalue = [8, 3]"] ;
98 -> 100 ;
101 [label="gini = 0.0\nsamples = 2\nvalue = [0, 2]"] ;
100 -> 101 ;
102 [label="X[25] <= 14.45\ngini = 0.198\nsamples = 9\nvalue = [8, 1]"] ;
100 -> 102 ;
103 [label="gini = 0.0\nsamples = 8\nvalue = [8, 0]"] ;
102 -> 103 ;
104 [label="gini = 0.0\nsamples = 1\nvalue = [0, 1]"] ;
102 -> 104 ;
105 [label="X[19] <= 22.5\ngini = 0.469\nsamples = 8\nvalue = [5, 3]"] ;
97 -> 105 ;
106 [label="X[28] <= 11.125\ngini = 0.375\nsamples = 4\nvalue = [1, 3]"] ;
105 -> 106 ;
107 [label="gini = 0.0\nsamples = 1\nvalue = [1, 0]"] ;
106 -> 107 ;
108 [label="gini = 0.0\nsamples = 3\nvalue = [0, 3]"] ;
106 -> 108 ;
109 [label="gini = 0.0\nsamples = 4\nvalue = [4, 0]"] ;
105 -> 109 ;
110 [label="X[28] <= 10.863\ngini = 0.438\nsamples = 840\nvalue = [272, 568]"] ;
94 -> 110 ;
111 [label="X[25] <= 10.917\ngini = 0.241\nsamples = 50\nvalue = [43, 7]"] ;
110 -> 111 ;
112 [label="X[17] <= 0.5\ngini = 0.494\nsamples = 9\nvalue = [4, 5]"] ;
111 -> 112 ;
113 [label="gini = 0.0\nsamples = 5\nvalue = [0, 5]"] ;
112 -> 113 ;
114 [label="gini = 0.0\nsamples = 4\nvalue = [4, 0]"] ;
112 -> 114 ;
115 [label="X[5] <= 40.5\ngini = 0.093\nsamples = 41\nvalue = [39, 2]"] ;
111 -> 115 ;
116 [label="X[4] <= 0.5\ngini = 0.049\nsamples = 40\nvalue = [39, 1]"] ;
115 -> 116 ;
117 [label="X[11] <= 7.0\ngini = 0.444\nsamples = 3\nvalue = [2, 1]"] ;
116 -> 117 ;
118 [label="gini = 0.0\nsamples = 2\nvalue = [2, 0]"] ;
117 -> 118 ;
119 [label="gini = 0.0\nsamples = 1\nvalue = [0, 1]"] ;
117 -> 119 ;
120 [label="gini = 0.0\nsamples = 37\nvalue = [37, 0]"] ;
116 -> 120 ;
121 [label="gini = 0.0\nsamples = 1\nvalue = [0, 1]"] ;
115 -> 121 ;
122 [label="X[27] <= 8.5\ngini = 0.412\nsamples = 790\nvalue = [229, 561]"] ;
110 -> 122 ;
123 [label="X[10] <= 1.5\ngini = 0.3\nsamples = 451\nvalue = [83, 368]"] ;
122 -> 123 ;
124 [label="X[30] <= 8.25\ngini = 0.472\nsamples = 21\nvalue = [13, 8]"] ;
123 -> 124 ;
125 [label="X[2] <= 2.5\ngini = 0.444\nsamples = 9\nvalue = [3, 6]"] ;
124 -> 125 ;
126 [label="gini = 0.0\nsamples = 6\nvalue = [0, 6]"] ;
125 -> 126 ;
127 [label="gini = 0.0\nsamples = 3\nvalue = [3, 0]"] ;
125 -> 127 ;
128 [label="X[28] <= 15.95\ngini = 0.278\nsamples = 12\nvalue = [10, 2]"] ;
124 -> 128 ;
129 [label="X[6] <= 138.5\ngini = 0.165\nsamples = 11\nvalue = [10, 1]"] ;
128 -> 129 ;
130 [label="gini = 0.0\nsamples = 9\nvalue = [9, 0]"] ;
129 -> 130 ;
131 [label="gini = 0.5\nsamples = 2\nvalue = [1, 1]"] ;
129 -> 131 ;
132 [label="gini = 0.0\nsamples = 1\nvalue = [0, 1]"] ;
128 -> 132 ;
133 [label="X[3] <= 9721.5\ngini = 0.273\nsamples = 430\nvalue = [70, 360]"] ;
123 -> 133 ;
134 [label="X[28] <= 16.633\ngini = 0.203\nsamples = 340\nvalue = [39, 301]"] ;
133 -> 134 ;
135 [label="X[12] <= 97.0\ngini = 0.191\nsamples = 336\nvalue = [36, 300]"] ;
134 -> 135 ;
136 [label="gini = 0.0\nsamples = 2\nvalue = [2, 0]"] ;
135 -> 136 ;
137 [label="gini = 0.183\nsamples = 334\nvalue = [34, 300]"] ;
135 -> 137 ;
138 [label="X[25] <= 16.917\ngini = 0.375\nsamples = 4\nvalue = [3, 1]"] ;
134 -> 138 ;
139 [label="gini = 0.0\nsamples = 3\nvalue = [3, 0]"] ;
138 -> 139 ;
140 [label="gini = 0.0\nsamples = 1\nvalue = [0, 1]"] ;
138 -> 140 ;
141 [label="X[12] <= 120.85\ngini = 0.452\nsamples = 90\nvalue = [31, 59]"] ;
133 -> 141 ;
142 [label="gini = 0.0\nsamples = 17\nvalue = [0, 17]"] ;
141 -> 142 ;
143 [label="X[28] <= 14.071\ngini = 0.489\nsamples = 73\nvalue = [31, 42]"] ;
141 -> 143 ;
144 [label="gini = 0.499\nsamples = 57\nvalue = [30, 27]"] ;
143 -> 144 ;
145 [label="gini = 0.117\nsamples = 16\nvalue = [1, 15]"] ;
143 -> 145 ;
146 [label="X[24] <= 5.5\ngini = 0.49\nsamples = 339\nvalue = [146, 193]"] ;
122 -> 146 ;
147 [label="X[22] <= 6.5\ngini = 0.444\nsamples = 84\nvalue = [56, 28]"] ;
146 -> 147 ;
148 [label="X[32] <= 0.555\ngini = 0.492\nsamples = 62\nvalue = [35, 27]"] ;
147 -> 148 ;
149 [label="X[19] <= 20.5\ngini = 0.475\nsamples = 31\nvalue = [12, 19]"] ;
148 -> 149 ;
150 [label="gini = 0.375\nsamples = 20\nvalue = [5, 15]"] ;
149 -> 150 ;
151 [label="gini = 0.463\nsamples = 11\nvalue = [7, 4]"] ;
149 -> 151 ;
152 [label="X[19] <= 33.0\ngini = 0.383\nsamples = 31\nvalue = [23, 8]"] ;
148 -> 152 ;
153 [label="gini = 0.26\nsamples = 26\nvalue = [22, 4]"] ;
152 -> 153 ;
154 [label="gini = 0.32\nsamples = 5\nvalue = [1, 4]"] ;
152 -> 154 ;
155 [label="X[6] <= 111.5\ngini = 0.087\nsamples = 22\nvalue = [21, 1]"] ;
147 -> 155 ;
156 [label="gini = 0.0\nsamples = 1\nvalue = [0, 1]"] ;
155 -> 156 ;
157 [label="gini = 0.0\nsamples = 21\nvalue = [21, 0]"] ;
155 -> 157 ;
158 [label="X[3] <= 9721.5\ngini = 0.457\nsamples = 255\nvalue = [90, 165]"] ;
146 -> 158 ;
159 [label="X[19] <= 23.5\ngini = 0.409\nsamples = 220\nvalue = [63, 157]"] ;
158 -> 159 ;
160 [label="X[10] <= 5.5\ngini = 0.328\nsamples = 150\nvalue = [31, 119]"] ;
159 -> 160 ;
161 [label="gini = 0.407\nsamples = 95\nvalue = [27, 68]"] ;
160 -> 161 ;
162 [label="gini = 0.135\nsamples = 55\nvalue = [4, 51]"] ;
160 -> 162 ;
163 [label="X[32] <= -1.31\ngini = 0.496\nsamples = 70\nvalue = [32, 38]"] ;
159 -> 163 ;
164 [label="gini = 0.346\nsamples = 27\nvalue = [6, 21]"] ;
163 -> 164 ;
165 [label="gini = 0.478\nsamples = 43\nvalue = [26, 17]"] ;
163 -> 165 ;
166 [label="X[28] <= 12.053\ngini = 0.353\nsamples = 35\nvalue = [27, 8]"] ;
158 -> 166 ;
167 [label="gini = 0.0\nsamples = 17\nvalue = [17, 0]"] ;
166 -> 167 ;
168 [label="X[31] <= 2.0\ngini = 0.494\nsamples = 18\nvalue = [10, 8]"] ;
166 -> 168 ;
169 [label="gini = 0.444\nsamples = 15\nvalue = [10, 5]"] ;
168 -> 169 ;
170 [label="gini = 0.0\nsamples = 3\nvalue = [0, 3]"] ;
168 -> 170 ;
}